{"vocab":["\n"," ","#","(",")","*",",","-",".","/","0","1",":",";","A","B","C","D","F","I","M","O","P","Q","R","S","T","V","_","`","a","b","c","d","e","f","g","h","i","k","l","m","n","o","p","r","s","t","u","v","w","x","y","z"],"config":{"vocab_size":55,"n_embd":8,"n_layer":1,"n_head":2,"block_size":8},"weights":[-0.011710356187679584,-0.0028173868455920784,-0.03507964213868607,0.01095706451560526,0.037604005725127544,-0.08513796616483986,0.03917847014364237,-0.017281492502315074,-0.10533974334340987,-0.04639342233461986,-0.005457331281670481,0.07216304799680766,0.03741606433072174,-0.09028500473985213,0.051860597027901544,-0.08885953901221796,-0.06904554336811095,0.016041523351986813,0.04631213855880165,-0.02230231676202623,0.05614500334442397,-0.05369171624165729,0.01162942474776739,0.032761400178230364,-0.03125104571620795,0.06361148981331137,0.05535299985263933,0.005881638070033226,-0.0639984491087751,0.028117230621467648,-0.04143692424363012,0.005000687826767916,-0.09307631122320469,-0.021391988348692655,0.002592975741052683,0.003917353754964381,0.003285676383841718,0.07200813350963536,-0.053282236168714865,-0.1162974362443188,-0.021685963107269834,0.07773885214209847,-0.0077101527126564534,-0.08141151583152204,-0.03982613435005963,-0.0345950487833853,-0.02750775952096877,-0.07611712370497463,-0.06611418122951737,-0.02598179765999332,0.021269693286177685,0.01958640898970222,0.07071877258941253,0.040215924218829906,0.006691926669559227,0.01924574183732404,0.04372832687156328,0.002439333817606065,0.07180961684523159,0.015985218212386396,0.028549742918611596,0.07497737561101335,0.028152791916895143,-0.04849897701928883,0.019172466670310643,0.0024821738802991568,0.060330514093268534,0.01347033796724333,-0.056910757831238334,0.007260989960412433,-0.01677213793378661,-0.04553814762209682,-0.052002340344956405,-0.1449860524887885,0.01131797636245416,-0.06373994066206935,0.016507198707170972,-0.03843667013443973,-0.05551424856394993,-0.02647766027003037,0.009334970937337945,0.15776690254784245,-0.05409213036959341,-0.04543571429656331,-0.02270392511297959,0.03896917069097491,0.010975604328464943,-0.048778572888614355,-0.06008375679470522,-0.015744909926485792,-0.042829104366625736,-0.020969048454295827,-0.058880293660472295,-0.026106124934340082,0.024510711181075565,0.021259584536583633,0.0824530137241096,-0.07152653962071244,0.041360841326824334,0.007276852886186388,-0.044733412424164135,-0.08465224651971599,0.010680243525770218,-0.03058573915615969,0.019850041773133924,0.043878362838961314,-0.00400610673621925,-0.04454042397224828,0.008511405520565557,-0.0615016706853668,-0.020010429436598462,0.013797499477270766,-0.10791288053141285,-0.08737505015455337,-0.01842897035724448,0.05931093629882191,-0.01855609484648552,-0.08179232596222633,-0.012622155293726837,0.02235908913554962,-0.03902086183095588,0.046869966390423366,-0.0054714716440965065,-0.03534469322176123,0.003711967802810753,-0.0016729600344084735,0.04340436621199628,-0.029222778404692205,0.0034648738025099793,-0.02953713436743407,-0.0025222283159541184,-0.03672958444065258,0.05251949453834069,-0.0188622584239487,-0.007864374731774934,-0.03131978304773424,-0.005619110710318865,0.007043066670217684,0.05138005763866836,0.05876013866312434,0.01504845706804737,0.07735140425765223,0.019048530571950908,-0.04613307181044034,-0.03706603004987084,-0.057667586232802784,0.036354881108715736,0.12075179927551404,-0.09116158058809402,0.03275264695367774,-0.01126786115108672,0.0030999138848456197,-0.041007968666238744,0.068510023136,0.013485638099534325,-0.02643052822757646,0.023469195364908917,-0.053549810810292024,-0.06616415270053057,0.015031070442431314,0.07424218286205665,-0.09670721112634179,0.07591147054128876,0.02346537541865352,0.0839710112510598,-0.01829755481435079,-0.016657721139845663,-0.05144370532755426,-0.046726935777319095,0.05570055299054673,0.04024839649293138,-0.09810650242418215,-0.005377418389992084,0.05650335340849633,-0.029514380600138158,0.029514868774590114,-0.06470938200854316,0.04888126909522103,0.009399875148185004,0.0066612090668040445,0.08673655735939735,-0.019566468397000193,0.05518392966708479,0.03936726751177471,-0.05501649004077928,-0.020289059701275855,-0.02447015520888753,-0.02889183638702093,0.01775497180989248,0.05345581390886686,-0.03087666432045955,0.012879345770025452,-0.024785690053952387,-0.09227807372410453,0.03150119425442275,0.07535823094501493,-0.02644863839834356,-0.039370141959569296,-0.01406643581251225,-0.029338228183294027,-0.042767754131937535,-0.030133604470143842,0.03977607203563026,0.02823937456214701,0.04958844659057526,-0.043009317866539824,0.033936895611510635,-0.07340755428899917,-0.10628828090285952,-0.03881842002602104,0.00834698353139629,0.024172962692798023,-0.02060686144858135,0.03825381504415642,-0.011078345852644595,-0.07358543369673447,0.005685179247063488,0.06908600384569016,-0.015087587904545981,0.024514039015628344,0.04716554603138718,0.002868137868537346,0.008862622396969612,-0.06799987942826224,0.031042976500795873,-0.019294664926443997,0.027204041775089324,-0.06182892551981747,-0.006034938547909085,-0.03300173997810555,0.07899087900003927,0.003953423967590908,-0.06260075517419335,-0.008579340024609236,0.021828313818606573,-0.021665671590455262,-0.04631254535566466,-0.06362005443755486,0.027938746940086422,0.02194005980749945,-0.07227660965676083,-0.017946856002364193,0.0665604584888843,0.06229660230611123,0.06692750149585223,0.01676782618968986,0.0515644079450631,-0.10376934175969783,-0.020502271048719004,-0.009051998837928175,0.07648989737662461,0.06095014551824603,0.009902365937086278,-0.010924238649186756,0.052941437376335256,-0.08621457557022379,-0.10758044644558376,-0.07913152526627759,0.05586749403508825,0.08461475160557144,0.032428042209482075,-0.08687922803103175,0.05037090300480807,-0.1310056755868392,-0.035680531556265646,0.046871454426009276,0.0541280509036339,-0.022199458338791736,0.04908906862143672,-0.054894431680942504,0.026218741558191462,0.013004288827105035,-0.055764705929231266,-0.03578077922462338,0.04978600176687823,0.027899090282360976,0.053949382464357674,-0.003077321113498848,0.06242412082976662,-0.09166397645776837,-0.06241186729085867,-0.08352742790182034,-0.021676079520072337,-0.044227399992194896,-0.08619372122110584,-0.05159638416536137,0.02645995497418694,-0.021419496859998707,-0.03382849447489562,0.0013990248868774712,-0.010494954559395751,0.00031322603519306683,0.0054215119618428835,-0.012129964684374389,0.05348069335461892,0.034324401570375127,-0.08482089816311691,-0.06446926388487642,0.048877653060495775,0.03390785798742606,0.04614483096878902,-0.06514695801746147,0.060192073492685426,-0.07983567304652385,-0.017552117960316884,-0.04599043032110125,0.08670229494311996,0.05141820303356343,0.05906669772909367,-0.00027597464060976067,0.04905832924792258,-0.13510458413455284,0.03917067084968057,-0.044902236828813925,0.001841442554349223,0.006593396170157672,0.07359375566321494,0.03981552247471954,0.015537860705539466,-0.007915888681395858,-0.08452759336089559,-0.05254734491831704,0.02727105763046341,0.04317591641279478,0.022169959505580476,-0.06544833947125425,-0.01764055470000596,-0.11446608034114002,-0.015280541632396203,-0.06360673759611088,0.052807071289685745,0.03387876687166725,0.03779704221466353,-0.006827435252846469,-0.010637911757262399,-0.03693999414670367,-0.05438981297388555,-0.029115730590917155,0.06302448605322614,-0.037505137898187754,0.038689780749708344,-0.04525800845719981,0.04790861859268595,-0.04158308348744561,-0.07568310659699112,0.04699963978322533,0.06378190061133752,0.04934537330082335,0.06581917079394613,-0.022055288030278848,0.05209927549510595,-0.0899289504713665,-0.029427671355681428,-0.0019365812456958937,0.0592974897320783,0.03573184843344194,0.07710581213235408,-0.0002754024483594312,0.06443607212297667,-0.04309270210034931,-0.02278769395146306,0.046876670489303024,0.05818164108633547,0.039158720664836166,-0.026775372460724024,0.016809409937474647,0.0586203699715582,-0.0572611376730002,-0.10532442940634394,-0.018522502378710476,0.12254381486754126,0.060471496573491254,0.08657652796839897,-0.02539282552182283,0.06778845039888244,-0.1353361334925556,-0.09065744217447151,-0.018457872574683492,0.08038119577660162,0.048832935591589896,0.017184513159385614,-0.06310477144042191,0.03551943049170083,-0.09930535475112875,0.03817910262217372,0.0008498309751583909,0.08066711537250194,-0.0377727223036316,-0.010497679184340527,-0.07260933616353236,0.087603047542534,-0.08200431799281269,0.029722695479950895,-0.04469022890771343,0.04304478331081327,-0.03661472442483197,0.07955965370512857,-0.009731827218490637,0.07942916412512724,0.09263733296508787,-0.03445822805728155,0.011098548913763658,-0.026976595111288453,0.0014388389428099599,0.0376176285763214,-0.056731245704938205,-0.03515333086424646,-0.036977344299934045,0.025471879403143022,0.0030049374448595503,0.06350576771203521,-0.013214382845195126,0.08050861539754951,-0.01760478492339374,0.018552623149697533,-0.020817949723670494,0.05328443752189375,0.03232960191472857,0.06717857638997182,0.059085907459265244,-0.05243492295858049,-0.08655992596929471,0.009686049206709003,-0.12027564106422936,-0.03309167515839276,0.055218201427643436,0.01591790711529552,-0.02363895779337835,-0.07048704357717114,-0.07302643553526192,0.06420552996350039,-0.05011496984431879,-0.13854609553579683,-0.0044144372825329695,0.024910512516909827,0.028814442307198113,-0.008901809287702098,-0.13493503839670828,0.007851656223992393,-0.015718838107421286,-0.043145090421485385,-0.020551132377146345,0.061857399895841374,0.03682228490817136,0.08329110675627793,-0.07985088599865675,0.11734680853882522,-0.0617872407787816,-0.08534126749161945,-0.059976035406744115,0.148465307628826,0.07332663088756886,0.1212623999399187,-0.037475331333843315,0.09311839162388755,-0.09509071608508349,-0.10413065788858183,-0.07855618900829699,0.12057609669707901,0.11801160425676642,0.1190197614661533,-0.043146697856247196,0.07361424007234439,-0.1234482900013996,-0.05879647226471918,-0.08408801100958502,0.13746861232727262,0.08866890462733741,0.10432966236024101,0.0009275790660671765,0.07295391990153123,-0.09541449383745881,-0.08268562887326386,-0.09915580624409887,0.1454708587366995,0.12799009991111573,0.10010900517507833,0.003729526368306495,0.03924263375098663,-0.13447581858022936,-0.04203600238169102,-0.05493122382220042,0.12313713477646823,0.09447282179232672,0.11632560883003996,0.006269444802354851,0.027469416624002665,-0.1035638342683638,-0.04042666295064438,-0.07365826595646602,0.07852580330934979,0.09087558164299006,0.12040742557555496,0.03565248758908784,0.03767261065244788,-0.10484703315095016,0.009940224958764416,-0.07799355638222112,0.16296618392570497,0.044003515316746886,0.12290682255269948,0.06096662912012823,0.03848272679761954,-0.15764940763050153,-0.058398185713765136,-0.09870083350445673,0.09476007858776107,-0.030705547413663273,0.016346895597530282,-0.0790841803632728,0.03708100520541842,-0.04928164100194285,-0.1750108174385142,0.00849843565750896,0.24772058847691722,0.04398538545501928,0.207290803595673,-0.133642716931723,0.0964029099619284,-0.21999764145100312,0.025283747022577876,0.00969029248064543,0.01024545237114907,-0.056453732947112305,0.042615660109149384,0.03883051146910591,-0.002007819596419794,0.035600343623434665,0.0691060662097238,-0.002038586320174289,0.043524526588438806,-0.045116723666195443,0.0011241569266267604,-0.045298560013126,-0.013441329399689082,0.02149709854759486,0.004933527814262959,0.04067376784326065,-0.036844569032109455,0.07167324626008643,0.07160438475155154,-0.035708419606112686,-0.061223537076768295,-0.06286430924525531,-0.00038431571118074015,-0.09213479002190615,0.048805510799416835,-0.007465871212639081,0.020258302915846117,-0.09990060071789253,0.02999661517127729,-0.00415156345450176,-0.0464197225207807,-0.05028182061870197,-0.04535013625232626,0.07892678309304506,0.010514495001042743,0.01192269597716466,0.05113706159180127,-0.046735113688255024,-0.1051512226791558,0.028836050495121886,0.04375521309849895,-0.003761338261791308,0.0730625208831275,-0.16789895453679338,0.06513830105313129,0.07298156161642828,-0.10021134031118491,-0.01847988481044978,0.04279026749730028,-0.05703467307336177,0.005907751960110805,-0.016006342860688368,0.008673330761559813,-0.06885761675463324,0.005663145237987628,0.020524943400264777,-0.0059522397041671124,0.04918805836383804,-0.021795497676268046,-0.005900096523864651,0.03207460330147754,-0.08559519661746358,0.05474713584292287,-0.021037559678845567,-0.008114450282096938,0.04402014058871862,0.09177241110708195,0.12023358363103775,0.023320248017698393,0.023705534772565675,0.004175236176094931,0.05189784502202122,-0.024691480500168707,0.055682925971237134,0.022230822953959204,0.04646517551007086,-0.03285386357186451,-0.03150103142843544,-0.11164201053815032,0.05354287668378262,0.10130494097911158,-0.05242525629343835,0.04507033722652119,0.054719099829340555,0.08161490024449461,-0.02536488381300359,-0.02392734909443681,-0.10503215443184691,0.10957097531452563,0.0516197572229452,0.056691201301334364,0.004098786423365148,-0.03791174991694735,-0.05714897211006416,0.02022564893456199,-0.004080648909086513,-0.036002218186319,-0.05272623762432621,-0.0605318609723712,-0.0900738621016715,0.0030101418549970307,0.04040673473185251,-0.0488694164949959,0.003758087875104575,0.015900746279437203,0.05371478118915514,0.08965030416602776,-0.010043512337492462,0.0006095073098785302,0.045724996406565105,-0.07413415763966832,-0.008158896064029166,0.08793316927452322,-0.012737705906529234,0.04058833141043358,-0.05199802374323673,0.05901004660703745,-0.03141833469607922,0.00902841243942028,0.09508168760206434,0.043900674097456335,0.087566439571738,-0.03947135768209591,0.0613214249014397,-0.09787912225033811,0.0023201932271972583,0.018380627873362372,-0.007812239258081831,0.008991709985746776,0.004241744701399857,-0.007649724552420213,0.05385935336029171,0.03316991311024839,-0.04217619641166501,-0.02998096558422258,0.01177317884427034,0.001721464713821729,0.03479330245235725,-0.06500594467411915,0.015274529404912904,0.015769897957412928,-0.031206379810495524,0.00954789430955829,0.018443152521147397,0.004866133034817269,-0.03177533698354319,0.05208742652905872,-0.09143827452576461,-0.05514735701720118,0.035794268958951755,-0.03487296846165446,-0.03560947058798309,-0.06567271927614479,0.03827782224961318,0.016879941863038147,-0.01915274487697527,0.056709685491118905,0.018607687714660735,-0.050880686497645,-0.10776561879836079,-0.06349971919220512,0.081492343582826,0.0010974430555985737,-0.09281399653268867,-0.10180675509918137,-0.10178438986743382,-0.010787205457731907,0.04439048129103327,-0.03832057303529046,-0.01397033941735856,-0.010300089498282646,0.07084260856609767,-0.00939645981214369,0.021976502111836212,-0.10240829080111474,-0.11232770023493055,-0.03426538039744814,-0.05956933486741919,0.01501643666060753,-0.0023937121483031945,0.030419445057493746,-0.0850955470381268,-0.07310882982865866,-0.0568206773104308,0.05215104204094985,0.029724877743325693,0.08533869084909895,-0.07668305352766233,0.061741589867431286,0.019119374642103684,0.06089933165631866,-0.08887134488787578,-0.01696256855421007,0.08674267017239724,-0.0009296959087246215,-0.049932871551612835,0.02020913011894329,0.03684942041994823,-0.025868830408129675,0.03558195670426304,0.03092437232285185,0.03263562989286932,0.05934890482859352,-0.03302370856054987,-0.13647190817662588,-0.028084888368312556,0.042408083058906455,-0.02452707942047125,0.01911275313623449,-0.07028164811113696,0.03533038772690624,-0.008929867380566812,0.1067564359913262,-0.009896955673690382,-0.08359730773653179,0.02388329386944577,0.0893980884435082,0.07618312292670461,-0.03178627114171398,0.07427914184000411,0.03712331794152291,0.018017054817539752,-0.11633433400840935,-0.14362383424542796,0.24835556220409502,0.15051658986134622,0.02550255985426595,-0.10351802977549243,0.14845330244765606,-0.2316811920656044,-0.05323706580409633,-0.05236404432963747,0.03440427578292137,0.06844796873406055,0.009532607882414572,-0.06199387897340791,0.06455601293637776,-0.02986477723768834,-0.035754555542495486,-0.02475359561479318,0.24415357190511647,0.15329841459639149,0.20828937538705602,-0.015215257350016343,0.1415091359887335,-0.18772679193556255,-0.07002129195136514,-0.1158633881824276,0.08897135958696882,0.04169008101494949,0.07042396944148614,-0.10344036090611901,0.0033229204729406736,-0.14430839413268987,-0.06401453801299707,-0.1290082276799179,0.20598183761871933,0.08850439883637257,0.20318143483808204,-0.10882747370565626,0.21727173493902677,-0.10322809639896587,0.011269321451597201,-0.026943924279466847,0.01097964367521767,-0.04307488657472135,-0.02601769829958557,-0.1105096242365014,-0.014979721825944828,-0.023772223672846343,-0.027338860716250135,0.028179768915631547,0.01410329169266471,0.0936500310869756,0.017058489593490787,-0.05529757622643413,0.08606586070985207,0.04095853299789859,-0.21404154707187986,-0.11147203487468318,0.11929612606267032,0.13991613986772314,0.17221274938261008,-0.023698105936318214,0.13975168740337426,-0.06854990031891793,-0.24617048324494975,-0.17831292276094884,0.18243246547999295,0.22162926705508898,0.08847708423690553,-0.23417348724681383,0.1454097505711306,-0.26186602715164875,-0.009501382670686197,0.026337520455950683,0.038565168958970254,0.08597682174201705,-0.0142378800112792,-0.0031021694003102126,-0.017351423662605305,-0.038931651986755376,-0.1162530300555971,-0.10182959661836374,0.17161140879591344,0.14759672248692274,0.0657702399755323,-0.024823453167460437,0.10837819449191163,-0.14115136979736145,-0.002198962012957137,0.017722734485258296,0.0739040795416877,0.07243741700136325,0.03611346275534047,-0.01693912599109344,0.09310748479579768,-0.07489282935911297,-0.23055397200235397,-0.03755952544599349,0.16969541124479645,0.22111355035354247,0.21676318600296277,-0.09100811123907948,0.14202095053696573,-0.2619771247078221,-0.11173564041019801,-0.23576577927477974,0.09457539180007567,0.1243791170017164,0.18004162355157874,-0.06153971644029548,-0.0097543020314663,-0.1763145570453189,0.011753958323018694,-0.09935124120363605,0.12422378069038577,0.11496343697341797,0.07000825157669537,-0.06970283996732433,0.07841095929267011,-0.1556308908116185,-0.022216550675092202,-0.11070595385260713,0.028193694336239777,0.09764111899810503,0.15379848773711965,0.0018980635005445357,0.08906268747597403,-0.04706836177202166,-0.07476803577554042,-0.11853193951817008,0.12582418297129128,0.009193602666113163,0.06460786804196356,-0.10079242096746734,0.1305648587898851,-0.16705755563646255,-0.16452402153947637,-0.11635340858284463,0.22908454853067567,0.08696356738879016,0.15321112675145623,-0.002392053320382753,0.2393252360998135,-0.25153611469593035,-0.04787362542647701,0.05021102008643018,0.049245796247732634,0.1130917625264512,0.15019618945900148,-0.0008666858478409175,0.09625474580191354,0.05794752050058894,-0.024683410489783484,-0.08380040534390573,0.023182225994480825,-0.013802333988981974,0.13891991907874482,-0.021640584641041235,0.05567499757875265,-0.10433705280896695,-0.13381745927490202,-0.07784516501897437,-0.0046618506074627575,0.06541636609590883,-0.007644127403465972,-0.132618347595154,0.08371016288963493,-0.08638080286046546,-0.07720143534839814,-0.04488569537612721,-0.07179227346374993,0.002660994414972997,-0.0029661704790482804,0.08496062989060732,-0.03590296293371724,0.020835943812402426,-0.061376965390140106,-0.02178469620385496,0.13811582814491655,-0.01111712072138525,0.026870954613042557,-0.06849586385555449,-0.048042072748918835,-0.1521120413745063,0.001987198304956579,0.006370680479413519,0.08523615943142385,-0.12175369208480244,-0.009190946882110194,-0.06069541722927876,0.04136009276129936,-0.06394397735011922,0.15171342801165363,0.07274334539873839,-0.15936497430967111,-0.11295261775447042,-0.07623148930366044,0.05640648810644458,-0.23518885558357652,0.18564333683342712,0.0721004492533214,0.23719872957657903,-0.09922433313383372,-0.211142273089509,-0.12971937064281253,0.12542630083656223,-0.02245115159334808,0.10864577849588106,0.007618908397993085,0.1368905827911563,-0.289002060095215,-0.09304494094783504,-0.2235131682031175,-0.09405656285240174,-0.050902384666447885,0.2250099768847063,0.08625541051910378,0.022707602699737307,-0.26796551845674055,-0.09438295748248036,-0.2485128355767269,-0.006306114387340715,0.026404728179699397,0.20205876598024536,0.05169138365428823,0.18888532117163825,-0.14391758599382978,-0.20198668201338948,-0.13716701390344452,0.0017991872481203741,-0.09204966449975845,0.2402894883906691,-0.009003650132115943,-0.22013774581395787,0.1247335772950415,0.21041413188964725,0.15227299690466972,0.1649775079164003,0.07389159767685625,-0.2868919451697861,-0.0005661028568420889,-0.19185963874615214,0.2689240415098459,0.20775006596145587,0.19437796559183518,0.22596297147945155,0.11316446874554394,-0.24234310460772385,-0.1866737637617455,-0.23247465574784185,0.18257694404682775,0.2735362925303938,0.10831104213336092,0.06338369318131307,0.08462180901452018,-0.20966827655804254,-0.1384508257310297,-0.12245904468603373,0.23473102182473998,0.13646129606046806,0.24383399677796522,0.180559336021962,0.1720720109147071,-0.21325708707567598,0.09977504358410996,-0.048506072865866376,-0.18566650302951535,-0.0263059584953594,-0.13920723588618802,-0.026925682642408674,-0.16354636710149237,0.12555859956495122,0.2979546163432104,0.15039202605257268,-0.1886760816286517,-0.212669157235724,-0.17681039213754848,0.23447277693462598,-0.22581070215915283,0.30871426644877775,0.2711650447376064,0.23756268791984111,-0.1620649964372163,-0.11882275909982688,-0.045611291349702335,0.1382328846525336,-0.260187413294752,0.1367471510168711,0.18774702417390293,0.0365494191975908,-0.17398146964204392,-0.08802075285981904,-0.21258023475107457,0.1974921430562212,-0.1877936392648068,0.10769359906415886,-0.3180816639750398,-0.0728846197669811,0.288432716802233,0.17143301776586362,0.2195832021298155,-0.22013515803278028,0.20467784304488199,-0.2883523706100003,-0.2788525500078045,-0.17536811715431397,0.18173811356927583,0.27971899035086056,0.14440061182963904,-0.2846641204857684,0.1498786696692807,-0.292320791292247,-0.12371121455593964,-0.039737321357838584,0.2868607404385962,0.17042065719187327,0.2829654253895939,-0.24591231146392628,0.14038286653288515,-0.16747332193384523,-0.21949633018507467,-0.17598982618647943,0.19518008218226024,0.1772502040515524,0.11379184708636746,-0.2952655161836567,0.16359592791471336,-0.19086177359877732,-0.33496144222511226,-0.06192370610647471,0.23419160180709414,0.16193436133439432,0.29030286211928036,-0.25360341873291653,0.2707904830303359,-0.2703104431664318,-0.2879836685710323,-0.14239680943295147,0.2604177989148075,0.0901703290568485,0.1951736558599573,-0.13795864329013213,0.2275840206977763,-0.31043796052387695,0.23414012445763824,0.1532856913820823,-0.27679459409632867,-0.1861076765500493,-0.26280529889863036,0.15815444255520214,-0.23696083414249522,0.23591318735274308,0.28333889703084586,0.19291736977683682,-0.2950761492435161,-0.2754075191684261,-0.24570166256560377,0.18571415084026527,-0.2584956326753227,0.21763727203751962,-0.31715593273812137,-0.17376019377509708,0.2790454340443832,0.25608649182090193,0.2733308089931838,-0.14160772067665936,0.2445791015218889,-0.2160763980944219,0.22246868494549388,0.11797234746806629,-0.20128637495140872,-0.2276689051473438,-0.3585071386573928,0.18018999585650688,-0.26647801250261527,0.2739154776435203,0.2831457198849773,0.14220734259233767,-0.31915855304522106,-0.23845347478443601,-0.2491547402060074,0.30602062822634424,-0.16424229712525013,0.18504285029499465,0.30706630685041375,0.2224230146348587,-0.29105519453409856,-0.2391579894602928,-0.2036586599852213,0.2363212051679693,-0.18114609977083027,0.30994322203779284,-0.19592408293047256,-0.11762634741340468,0.2566044907914639,0.23640776231699473,-0.1905690290317116,0.17633294410016154,0.3030738227321199,0.23135403623605957,-0.22429365509519905,-0.13163332732011815,0.13602460519530904,0.2293232206130404,-0.1461225225390097,0.19206972729283728,0.341412251579709,0.277056366133937,0.37617463023199227,0.2712244100453629,-0.31220095671660847,-0.28557063736501087,0.21010957707220076,-0.27443194310858826,-0.2513662703529861,-0.239067801073519,0.1947152275992545,0.2512829149027942,-0.23894367487278856,-0.26342004293333654,0.14477238677497292,-0.21830467524289365,-0.2001274241273033,-0.17401117374784614,0.25943037302308836,0.25054070197979594,-0.1478699954804966,-0.17216770624552497,0.21689746627523251,-0.2680661808826299,-0.1975013520708874,-0.24286334416801955,-0.1634045394358616,-0.1520715514208935,0.137708070321097,0.04760793805725619,-0.09792120078723712,0.1340194326251461,0.21416131185916737,0.07097892345314784,0.355093999011604,0.22121186734889223,-0.21201788689918,-0.24112956034137623,0.21019401749605374,-0.24772290127747687,-0.2913242249812192,-0.3317739231461817,-0.2516356667451746,-0.26147082356494916,0.26539452968488897,0.27719141714930273,-0.3282159807019236,0.2016314925577889,0.2123558869342734,0.3337481655108895,-0.10839329770656671,-0.1114549427229333,0.24442930379178046,0.22254538599174375,0.11052477154402275,0.06405736146499554,0.2006662522463882,-0.27361821949097953,-0.2697240205423802,-0.18731232745485368,0.21299406748503671,0.25008150377848426,0.2564273404517249,-0.07647077730253572,0.324139717593398,-0.39142347325732957,-0.0912306192206204,-0.1547856126722661,0.18424199515897774,0.2804210724790003,0.1799958851310066,0.08469834193135006,0.2348249725918802,-0.22918342687015267,-0.2465524336628292,-0.07951536677090466,0.15399669573137093,0.19029323239346294,0.06680751137262246,-0.18614794213115474,0.004375673712864518,-0.18105826137742914,-0.19732404030672107,-0.27243671056894797,0.14705472398119557,0.17745940908348956,0.09880977784824788,-0.13356519249188878,0.05860980052013681,-0.30801137378975935,-0.35260103569539675,-0.1500721125388213,0.2919780852176544,0.2038547670939389,0.33400859792419124,0.028895292621076662,0.2447075628968852,-0.30019287840875036,-0.1980904657711114,-0.1380734377627173,0.1646916412329025,0.18272350113526648,0.2689917204851258,-0.18606348262504174,0.3094617180376754,-0.23987893768138316,-0.19776319875133289,-0.20739637816391618,0.22263698586441658,0.14743663302406185,0.19638129220679237,-0.21016118083450208,0.0754413861840816,-0.24265692537424818,-0.18970757147409667,-0.15785721290427893,0.1666082322853009,0.2691161694713539,0.28484085628932515,-0.11206800274623836,0.17020084753796774,-0.29124075591014587,0.02341925842094367,-0.17553284492398324,0.27087258685152193,0.17004373428059313,0.1702888420126317,-0.05763303215868103,0.21009148604870864,-0.08081558364551578,-0.09250372975410366,-0.21251665644059722,0.24887147737503748,0.14623998154346246,0.16235185357081647,-0.04047692937039701,0.10653127160884548,-0.2742084109775863,-0.18008024501570385,-0.06921513553581857,0.30969745606515503,0.020610111588814317,0.17235871765312424,-0.11897146978128967,0.12974573826007027,-0.23113404500475324,-0.1286147422754232,-0.07465199450963846,0.2894294968110273,0.04103709626106317,0.2116506034156644,-0.16018602131862766,0.0804516561225453,-0.1525718810013978,0.017643277915138457,-0.045173365716711766,-0.06541148787826767,-0.07149694386889995,-0.06527486812122127,0.03804252492856785,0.027073490353074634,0.05736611539644594,-0.2487998012417495,-0.27574162445749595,0.1753894653041126,0.23680817751092553,0.09122195006955433,-0.24407714628341637,0.07567722130816468,-0.2557663217394396,-0.2929549739226437,-0.26593165118741235,0.2267180242448197,0.27488570386676997,0.09071135716967764,-0.15527271909111412,0.235696519376477,-0.21173759416767318,0.03829056043882672,-0.1178362542831964,0.15783483877893942,-0.05943248969794965,0.1382912931911547,-0.07007701288983449,0.15931127093461236,-0.06706623538436904,-0.2588703628932365,-0.19619812163740313,0.23026743563084187,0.287701033670608,0.09251093525483242,-0.2528694397509806,0.1657483295896327,-0.23243487132330304,-0.2957761432935143,-0.105531224180084,0.2762181210937624,0.17812987088475296,0.22010324534416575,-0.0681069811362349,0.2507520034795634,-0.20701854422254817,-0.1733028388783099,-0.12233847988961939,0.2749312995877433,0.1457259528996533,0.2883628762987446,-0.2702980240187067,0.0818612497730461,-0.2618266023481295,-0.08240928167567005,-0.08308063977293141,-0.04217307746621931,0.19823180110127947,0.0644111893862287,-0.20068742911937262,0.02567639990733165,-0.10799389439891921,-0.1589518253196903,-0.06548235117854456,0.2238478840166892,0.18878346457850906,0.2335844219707905,0.028627292138924475,0.16357602931676907,-0.2722688863015229,-0.1700422253153451,-0.2342164982385997,0.15951287037055525,0.2860455458738521,0.07000704868421984,-0.17838318672974926,0.13657358133758868,-0.2592232980419143,-0.26403402691215494,-0.14502796604340176,0.2785383884599124,0.13846181365988475,0.2889295696249749,-0.07498203746610627,0.25480515045840746,-0.32877710844359526,-0.0030097706967447363,-0.05238719984257104,0.24577402119605019,0.06217186565655439,0.10848613462453915,0.0197707169053206,0.20994759567062232,-0.02415316004174638,-0.22771360351965517,-0.27528121272287714,0.2079258198506671,0.23670048393536922,0.18945127540843354,-0.16936271583724102,0.02912632976033272,-0.2850549938833971,-0.22362459627168785,-0.08498166509941346,0.19272536737666837,0.06427429891246737,0.2841995692971692,-0.005014713974935799,0.12294995684950069,-0.17221694373174007,-0.18759464148313496,-0.31441490853401555,0.1816372441921469,0.15691673939435347,0.1949811671660439,-0.2289398605571494,0.18818096856393132,-0.20392544696796047,-0.16517560554947355,-0.07034985663686963,0.15885200565779256,-0.03049776803407377,0.2244737652566538,-0.132032572082619,0.1745936288496285,-0.08158671236331831,-0.30825448659283744,-0.23464701426041945,0.27774313750843077,0.2451026290953433,0.2607113723877922,-0.12807932971114072,0.25343430715404647,-0.31383285334727007,-0.28024659025892174,-0.2558828260408916,0.19529751847451507,0.2521779410797845,0.22809666232235545,-0.26345813577939026,0.21751822332925214,-0.26251124514976454,-0.19248650772443027,-0.06010544077801249,0.22015245013094126,-0.02817724954768327,0.25613300064369343,-0.08972917108210891,0.11654885972045025,-0.0902973949439113,-0.16121988625508904,-0.1636842294021401,-0.1666708092588664,-0.10389604209230681,-0.15191911243803238,-0.22051578572712754,-0.21318762392074217,-0.23152438745602205,-0.16223781457086178,-0.14640911965707062,-0.181177590130244,-0.16900089465844953,-0.18751208148590798,0.029518298563226155,-0.16684284788416687,-0.2780973359788893,-0.1383970521050948,-0.2457759834459138,-0.2286293493982969,-0.2575071315583118,-0.06573528009988674,-0.16710270031820862,-0.14751884780854482,-0.14288767972428615,-0.13955958197820859,-0.2840255051599777,-0.23307217807848107,-0.23740407867650726,-0.13662175582128236,-0.27544387181443547,-0.1989139657162462,-0.13951307084739495,-0.2700933765609856,-0.1763588594581305,-0.13170638712282864,-0.1438510860730684,-0.2707677353880799,-0.17096686051220877,-0.19039895106160792,-0.16187089473489416,-0.2125610374274922,-0.14368882110451447,-0.18233736790996893,-0.09739047286031607,-0.005271371641103298,0.02450525779972852,-0.22400764526294892,-0.17333445170466186,0.005775115597104597,-0.2939624550228166,-0.08806490712761618,-0.14891622048420664,-0.10832518309201929,-0.1595476198156369,-0.18559631247471767,-0.17120696191262677,-0.0806057933188059,-0.1992172032155762,-0.07722406823322904,-0.19969963070853872,0.04522745895894748,-0.2405325093364957,-0.18097845682465294,-0.001087345084916799,0.32432657600241077,0.30897720813545393,0.23149036598557496,0.12992070967583483,0.15552531627934923,0.41869943284268213,0.3331358246298147,0.20283996554291783,0.2989312686670449,0.236736405304713,0.21707819792459818,0.2462588138613215,0.23787957538245366,0.02337058587278294,0.19481324663572272,0.19697028855552087,0.19637060561141736,0.21338677248530047,0.2569438340111692,0.34180892124425927,0.16391608346280734,0.3329707350807967,0.15717431626387485,0.26832346965418385,0.2788711891565399,0.2388428652395088,0.26845469446907266,0.30174131837647267,0.21328731303063952,0.2681847437571991,0.21475412375985753,0.2081265846428554,0.07292877071257345,0.21221243726984082,0.16832051823602595,0.1475077776834174,0.18290009523758166,0.26238491802180325,0.15218847643195413,0.20607080311915496,0.0969318006136225,0.06851875740920389,0.19711474293622974,0.21514202969115648,0.15373270285902468,-0.0014071148490481763,0.24603974749403273,0.18973375957596392,0.049011336633644556,0.26334198090827504,0.17808069239608992,0.23628875560985607,-0.0039661905096792585,0.20875279490455023,0.17509792494957863,0.346218840778301,0.017428423843661917,0.22782761548216607,0.2318466458017699,0.17099094521062552,0.11935238832493417,0.24852413780202587,0.24533860124007004,0.2004463114941733,0.2691265021184436,0.25659970680153404,0.2999022336221323,0.13827181220940413,0.2281055169223383,0.2884218770005721,0.19032332427588483,0.18635175193987188,0.30501348145365614,0.29462985786594853,0.23423907475761718,0.22191972919247946,0.15396820440214232,0.03534454868679022,0.13239236276606303,0.22604213048883054,0.1535414372776091,0.1420269301559621,0.2598267416488841,0.12032684831636715,0.10396895415074872,0.20183625120108822,0.2204215193027392,0.21231774545866378,0.2419978710538655,0.22981205883455924,0.18760163850793912,0.19468820467682538,0.2253033608658687,0.2838175481484602,0.252940105606866,0.15432627709641017,-0.16529942697814695,-0.19271189016524157,0.010084668801908255,-0.18373859301047119,-0.21253981763181748,-0.17713941968783353,-0.10501079101270856,-0.16924631598643064,-0.2362160178532875,-0.00970360825540869,-0.11957142170274049,-0.24826457763205226,-0.19114342634459056,0.057698246052024164,-0.22314449456965826,-0.17999672406495315,-0.05813815874601843,-0.1264676010335214,-0.17058502460772748,-0.16623373381959855,-0.13560407490393395,-0.12121090184694423,-0.19041680770037386,-0.23598225425246075,-0.022522616375397323,-0.16451396580835076,-0.17119667405592862,-0.13546874809714018,-0.23457383860555586,-0.13047260449629552,-0.11055710677905459,-0.24592700095497594,0.19818122337617455,0.2799521476031296,0.17205128904564423,0.1761402130436392,0.135142647320326,0.22535870839391173,0.3420934183543366,0.20596762933766047,0.24190354589983934,0.22001901913103122,0.1456834595941346,0.12307374460405715,0.20203769604410315,-0.047067057303628965,0.18264216829378352,0.22633232348266963,0.1215396313690617,0.26102182537444485,0.29260854387201135,0.12724690220975593,0.20467419725962002,0.16487751252329325,0.22247363819138694,0.2927123643777988,0.1597486687614291,0.17667125868877864,0.2463087035212319,0.22454557288328617,0.13938917608100573,0.2781049725044397,0.28802508569315716,0.2002380970968753,-0.2605612012999074,-0.3211157398684763,-0.2881403222898668,-0.2597914618610244,-0.3144127370860125,-0.22555517826214375,-0.23148933302940958,-0.3075683631109956,-0.25789430552091974,-0.22558935175479405,-0.2967418584740631,-0.25788170261772525,-0.2928183971991147,-0.04219548843556876,-0.3262637719564438,-0.34733195511834997,-0.17636507005505295,-0.27408875154521617,-0.24218116621292074,-0.3305687873888921,-0.176066908814416,-0.24493304085297565,-0.3125937976317552,-0.3034216168659266,-0.20529526322299357,-0.3221094011570784,-0.204266755435669,-0.25045023463516347,-0.16627742813424187,-0.24789803852236544,-0.3030990904273872,-0.19079420924405033],"lossHistory":[3.9416348825818077,3.957878403694332,3.9683534974052463,3.9174583821361924,3.938441545540453,4.01314772249681,4.0134123820465275,3.922720891936756,3.941732912189542,3.912640557679805,3.9450821748232805,3.698336859173406,3.8146016449106583,3.790792778156287,3.807017225469234,3.851043891178261,3.646499606563734,3.606429571704677,3.994415481834361,3.7516054093200473,3.2136761699527954,3.175692138327829,3.197235942296266,4.145611383054031,4.57832879533239,3.4830763777197906,3.9305477009123293,4.340264177528671,3.82328934055516,4.70269914535516,3.94111928802596,6.88726918649372,4.662835511847641,6.595110336476744,4.528203492208397,6.643931722948454,5.442217118095672,11.480700341903596,6.630671990093061,8.688321078268885,7.77522407609797,6.349522795363343,4.737835866107149,7.891234788008992,4.994734169758286,5.963308884677483,8.212957706727586,6.170048956406871,5.063227233542399,7.07302265110152]}